digraph Tree {
node [shape=box, fontname="helvetica"] ;
edge [fontname="helvetica"] ;
0 [label="Total_Trans_Ct <= 55.5\ngini = 0.276\nsamples = 7088\nvalue = [1171, 5917]"] ;
1 [label="Total_Revolving_Bal <= 581.0\ngini = 0.47\nsamples = 2509\nvalue = [945, 1564]"] ;
0 -> 1 [labeldistance=2.5, labelangle=45, headlabel="True"] ;
2 [label="Total_Ct_Chng_Q4_Q1 <= 0.745\ngini = 0.375\nsamples = 816\nvalue = [612, 204]"] ;
1 -> 2 ;
3 [label="Months_Inactive_12_mon <= 1.5\ngini = 0.29\nsamples = 665\nvalue = [548, 117]"] ;
2 -> 3 ;
4 [label="Total_Ct_Chng_Q4_Q1 <= 0.367\ngini = 0.497\nsamples = 76\nvalue = [35, 41]"] ;
3 -> 4 ;
5 [label="Dependent_count <= 3.5\ngini = 0.231\nsamples = 15\nvalue = [13, 2]"] ;
4 -> 5 ;
6 [label="gini = 0.0\nsamples = 12\nvalue = [12, 0]"] ;
5 -> 6 ;
7 [label="gini = 0.444\nsamples = 3\nvalue = [1, 2]"] ;
5 -> 7 ;
8 [label="Total_Trans_Amt <= 2088.5\ngini = 0.461\nsamples = 61\nvalue = [22, 39]"] ;
4 -> 8 ;
9 [label="gini = 0.339\nsamples = 37\nvalue = [8, 29]"] ;
8 -> 9 ;
10 [label="gini = 0.486\nsamples = 24\nvalue = [14, 10]"] ;
8 -> 10 ;
11 [label="Total_Trans_Amt <= 1843.5\ngini = 0.225\nsamples = 589\nvalue = [513, 76]"] ;
3 -> 11 ;
12 [label="Total_Relationship_Count <= 3.5\ngini = 0.405\nsamples = 181\nvalue = [130, 51]"] ;
11 -> 12 ;
13 [label="gini = 0.186\nsamples = 106\nvalue = [95, 11]"] ;
12 -> 13 ;
14 [label="gini = 0.498\nsamples = 75\nvalue = [35, 40]"] ;
12 -> 14 ;
15 [label="Customer_Age <= 31.5\ngini = 0.115\nsamples = 408\nvalue = [383, 25]"] ;
11 -> 15 ;
16 [label="gini = 0.278\nsamples = 6\nvalue = [1, 5]"] ;
15 -> 16 ;
17 [label="gini = 0.095\nsamples = 402\nvalue = [382, 20]"] ;
15 -> 17 ;
18 [label="Total_Relationship_Count <= 2.5\ngini = 0.488\nsamples = 151\nvalue = [64, 87]"] ;
2 -> 18 ;
19 [label="Card_Category_Gold <= 0.5\ngini = 0.062\nsamples = 31\nvalue = [30, 1]"] ;
18 -> 19 ;
20 [label="gini = 0.0\nsamples = 30\nvalue = [30, 0]"] ;
19 -> 20 ;
21 [label="gini = 0.0\nsamples = 1\nvalue = [0, 1]"] ;
19 -> 21 ;
22 [label="Total_Trans_Amt <= 1982.5\ngini = 0.406\nsamples = 120\nvalue = [34, 86]"] ;
18 -> 22 ;
23 [label="Total_Trans_Amt <= 1009.5\ngini = 0.092\nsamples = 62\nvalue = [3, 59]"] ;
22 -> 23 ;
24 [label="gini = 0.444\nsamples = 3\nvalue = [2, 1]"] ;
23 -> 24 ;
25 [label="gini = 0.033\nsamples = 59\nvalue = [1, 58]"] ;
23 -> 25 ;
26 [label="Total_Amt_Chng_Q4_Q1 <= 0.993\ngini = 0.498\nsamples = 58\nvalue = [31, 27]"] ;
22 -> 26 ;
27 [label="gini = 0.429\nsamples = 45\nvalue = [31, 14]"] ;
26 -> 27 ;
28 [label="gini = 0.0\nsamples = 13\nvalue = [0, 13]"] ;
26 -> 28 ;
29 [label="Total_Relationship_Count <= 2.5\ngini = 0.316\nsamples = 1693\nvalue = [333, 1360]"] ;
1 -> 29 ;
30 [label="Total_Ct_Chng_Q4_Q1 <= 0.98\ngini = 0.361\nsamples = 161\nvalue = [123, 38]"] ;
29 -> 30 ;
31 [label="Contacts_Count_12_mon <= 2.5\ngini = 0.276\nsamples = 145\nvalue = [121, 24]"] ;
30 -> 31 ;
32 [label="Total_Relationship_Count <= 1.5\ngini = 0.44\nsamples = 52\nvalue = [35, 17]"] ;
31 -> 32 ;
33 [label="gini = 0.095\nsamples = 20\nvalue = [19, 1]"] ;
32 -> 33 ;
34 [label="gini = 0.5\nsamples = 32\nvalue = [16, 16]"] ;
32 -> 34 ;
35 [label="Total_Trans_Ct <= 51.5\ngini = 0.139\nsamples = 93\nvalue = [86, 7]"] ;
31 -> 35 ;
36 [label="gini = 0.088\nsamples = 87\nvalue = [83, 4]"] ;
35 -> 36 ;
37 [label="gini = 0.5\nsamples = 6\nvalue = [3, 3]"] ;
35 -> 37 ;
38 [label="Total_Trans_Amt <= 2210.5\ngini = 0.219\nsamples = 16\nvalue = [2, 14]"] ;
30 -> 38 ;
39 [label="gini = 0.0\nsamples = 13\nvalue = [0, 13]"] ;
38 -> 39 ;
40 [label="Education_Level_Graduate <= 0.5\ngini = 0.444\nsamples = 3\nvalue = [2, 1]"] ;
38 -> 40 ;
41 [label="gini = 0.0\nsamples = 1\nvalue = [0, 1]"] ;
40 -> 41 ;
42 [label="gini = 0.0\nsamples = 2\nvalue = [2, 0]"] ;
40 -> 42 ;
43 [label="Total_Trans_Amt <= 2103.0\ngini = 0.237\nsamples = 1532\nvalue = [210, 1322]"] ;
29 -> 43 ;
44 [label="Total_Trans_Amt <= 943.5\ngini = 0.114\nsamples = 1139\nvalue = [69, 1070]"] ;
43 -> 44 ;
45 [label="Total_Relationship_Count <= 4.5\ngini = 0.32\nsamples = 20\nvalue = [16, 4]"] ;
44 -> 45 ;
46 [label="gini = 0.0\nsamples = 11\nvalue = [11, 0]"] ;
45 -> 46 ;
47 [label="gini = 0.494\nsamples = 9\nvalue = [5, 4]"] ;
45 -> 47 ;
48 [label="Total_Amt_Chng_Q4_Q1 <= 0.317\ngini = 0.09\nsamples = 1119\nvalue = [53, 1066]"] ;
44 -> 48 ;
49 [label="gini = 0.444\nsamples = 9\nvalue = [6, 3]"] ;
48 -> 49 ;
50 [label="gini = 0.081\nsamples = 1110\nvalue = [47, 1063]"] ;
48 -> 50 ;
51 [label="Total_Ct_Chng_Q4_Q1 <= 0.632\ngini = 0.46\nsamples = 393\nvalue = [141, 252]"] ;
43 -> 51 ;
52 [label="Customer_Age <= 38.5\ngini = 0.477\nsamples = 181\nvalue = [110, 71]"] ;
51 -> 52 ;
53 [label="gini = 0.348\nsamples = 58\nvalue = [13, 45]"] ;
52 -> 53 ;
54 [label="gini = 0.333\nsamples = 123\nvalue = [97, 26]"] ;
52 -> 54 ;
55 [label="Total_Ct_Chng_Q4_Q1 <= 0.794\ngini = 0.25\nsamples = 212\nvalue = [31, 181]"] ;
51 -> 55 ;
56 [label="gini = 0.423\nsamples = 79\nvalue = [24, 55]"] ;
55 -> 56 ;
57 [label="gini = 0.1\nsamples = 133\nvalue = [7, 126]"] ;
55 -> 57 ;
58 [label="Total_Trans_Amt <= 5271.0\ngini = 0.094\nsamples = 4579\nvalue = [226, 4353]"] ;
0 -> 58 [labeldistance=2.5, labelangle=-45, headlabel="False"] ;
59 [label="Total_Trans_Ct <= 61.5\ngini = 0.034\nsamples = 3502\nvalue = [60, 3442]"] ;
58 -> 59 ;
60 [label="Total_Relationship_Count <= 2.5\ngini = 0.195\nsamples = 401\nvalue = [44, 357]"] ;
59 -> 60 ;
61 [label="Total_Trans_Amt <= 3387.0\ngini = 0.48\nsamples = 30\nvalue = [18, 12]"] ;
60 -> 61 ;
62 [label="Total_Ct_Chng_Q4_Q1 <= 0.503\ngini = 0.153\nsamples = 12\nvalue = [11, 1]"] ;
61 -> 62 ;
63 [label="gini = 0.0\nsamples = 1\nvalue = [0, 1]"] ;
62 -> 63 ;
64 [label="gini = 0.0\nsamples = 11\nvalue = [11, 0]"] ;
62 -> 64 ;
65 [label="Total_Ct_Chng_Q4_Q1 <= 0.631\ngini = 0.475\nsamples = 18\nvalue = [7, 11]"] ;
61 -> 65 ;
66 [label="gini = 0.219\nsamples = 8\nvalue = [7, 1]"] ;
65 -> 66 ;
67 [label="gini = 0.0\nsamples = 10\nvalue = [0, 10]"] ;
65 -> 67 ;
68 [label="Credit_Limit <= 1884.5\ngini = 0.13\nsamples = 371\nvalue = [26, 345]"] ;
60 -> 68 ;
69 [label="Total_Trans_Amt <= 2829.5\ngini = 0.382\nsamples = 35\nvalue = [9, 26]"] ;
68 -> 69 ;
70 [label="gini = 0.498\nsamples = 17\nvalue = [9, 8]"] ;
69 -> 70 ;
71 [label="gini = 0.0\nsamples = 18\nvalue = [0, 18]"] ;
69 -> 71 ;
72 [label="Total_Revolving_Bal <= 2369.0\ngini = 0.096\nsamples = 336\nvalue = [17, 319]"] ;
68 -> 72 ;
73 [label="gini = 0.068\nsamples = 314\nvalue = [11, 303]"] ;
72 -> 73 ;
74 [label="gini = 0.397\nsamples = 22\nvalue = [6, 16]"] ;
72 -> 74 ;
75 [label="Card_Category_Platinum <= 0.5\ngini = 0.01\nsamples = 3101\nvalue = [16, 3085]"] ;
59 -> 75 ;
76 [label="Contacts_Count_12_mon <= 5.5\ngini = 0.01\nsamples = 3100\nvalue = [15, 3085]"] ;
75 -> 76 ;
77 [label="Total_Trans_Amt <= 2716.5\ngini = 0.009\nsamples = 3099\nvalue = [14, 3085]"] ;
76 -> 77 ;
78 [label="gini = 0.107\nsamples = 124\nvalue = [7, 117]"] ;
77 -> 78 ;
79 [label="gini = 0.005\nsamples = 2975\nvalue = [7, 2968]"] ;
77 -> 79 ;
80 [label="gini = 0.0\nsamples = 1\nvalue = [1, 0]"] ;
76 -> 80 ;
81 [label="gini = 0.0\nsamples = 1\nvalue = [1, 0]"] ;
75 -> 81 ;
82 [label="Total_Trans_Ct <= 78.5\ngini = 0.261\nsamples = 1077\nvalue = [166, 911]"] ;
58 -> 82 ;
83 [label="Total_Amt_Chng_Q4_Q1 <= 0.761\ngini = 0.395\nsamples = 188\nvalue = [137, 51]"] ;
82 -> 83 ;
84 [label="Total_Trans_Ct <= 71.5\ngini = 0.471\nsamples = 58\nvalue = [22, 36]"] ;
83 -> 84 ;
85 [label="Total_Trans_Amt <= 5578.5\ngini = 0.413\nsamples = 24\nvalue = [17, 7]"] ;
84 -> 85 ;
86 [label="gini = 0.0\nsamples = 6\nvalue = [0, 6]"] ;
85 -> 86 ;
87 [label="gini = 0.105\nsamples = 18\nvalue = [17, 1]"] ;
85 -> 87 ;
88 [label="Total_Trans_Amt <= 7816.5\ngini = 0.251\nsamples = 34\nvalue = [5, 29]"] ;
84 -> 88 ;
89 [label="gini = 0.069\nsamples = 28\nvalue = [1, 27]"] ;
88 -> 89 ;
90 [label="gini = 0.444\nsamples = 6\nvalue = [4, 2]"] ;
88 -> 90 ;
91 [label="Avg_Utilization_Ratio <= 0.172\ngini = 0.204\nsamples = 130\nvalue = [115, 15]"] ;
83 -> 91 ;
92 [label="Total_Trans_Ct <= 76.5\ngini = 0.04\nsamples = 99\nvalue = [97, 2]"] ;
91 -> 92 ;
93 [label="gini = 0.0\nsamples = 89\nvalue = [89, 0]"] ;
92 -> 93 ;
94 [label="gini = 0.32\nsamples = 10\nvalue = [8, 2]"] ;
92 -> 94 ;
95 [label="Total_Trans_Amt <= 8555.5\ngini = 0.487\nsamples = 31\nvalue = [18, 13]"] ;
91 -> 95 ;
96 [label="gini = 0.472\nsamples = 21\nvalue = [8, 13]"] ;
95 -> 96 ;
97 [label="gini = 0.0\nsamples = 10\nvalue = [10, 0]"] ;
95 -> 97 ;
98 [label="Contacts_Count_12_mon <= 5.5\ngini = 0.063\nsamples = 889\nvalue = [29, 860]"] ;
82 -> 98 ;
99 [label="Total_Ct_Chng_Q4_Q1 <= 0.928\ngini = 0.053\nsamples = 884\nvalue = [24, 860]"] ;
98 -> 99 ;
100 [label="Total_Trans_Ct <= 87.5\ngini = 0.032\nsamples = 852\nvalue = [14, 838]"] ;
99 -> 100 ;
101 [label="gini = 0.16\nsamples = 148\nvalue = [13, 135]"] ;
100 -> 101 ;
102 [label="gini = 0.003\nsamples = 704\nvalue = [1, 703]"] ;
100 -> 102 ;
103 [label="Total_Trans_Ct <= 90.5\ngini = 0.43\nsamples = 32\nvalue = [10, 22]"] ;
99 -> 103 ;
104 [label="gini = 0.355\nsamples = 13\nvalue = [10, 3]"] ;
103 -> 104 ;
105 [label="gini = 0.0\nsamples = 19\nvalue = [0, 19]"] ;
103 -> 105 ;
106 [label="gini = 0.0\nsamples = 5\nvalue = [5, 0]"] ;
98 -> 106 ;
}